Language model created by QuickLM on Fri Jun  9 17:34:15 EDT 2023
Copyright (c) 1996-2010 Carnegie Mellon University and Alexander I. Rudnicky

The model is in standard ARPA format, designed by Doug Paul while he was at MITRE.

The code that was used to produce this language model is available in Open Source.
Please visit http://www.speech.cs.cmu.edu/tools/ for more information

The (fixed) discount mass is 0.5. The backoffs are computed using the ratio method.
This model based on a corpus of 11 sentences and 25 words

\data\
ngram 1=25
ngram 2=37
ngram 3=29

\1-grams:
-0.9672 </s> -0.3010
-0.9672 <s> -0.2515
-1.4065 A -0.2837
-2.0086 ALARM -0.2881
-2.0086 AN -0.2968
-2.0086 CREATE -0.2837
-1.5315 FOR -0.2515
-2.0086 FORECAST -0.2515
-2.0086 HEY -0.2968
-2.0086 JOKE -0.2515
-2.0086 ME -0.2837
-2.0086 MESSAGE -0.2968
-2.0086 MUSIC -0.2515
-2.0086 OPEN -0.2515
-2.0086 PLAY -0.2968
-2.0086 REMINDER -0.2515
-2.0086 SEARCH -0.2881
-2.0086 SEND -0.2837
-1.7076 SET -0.2792
-2.0086 TELL -0.2968
-2.0086 TIMER -0.2881
-2.0086 TO -0.2515
-2.0086 TRANSLATE -0.2515
-2.0086 VOCALIA -0.2515
-2.0086 WEATHER -0.2968

\2-grams:
-1.3424 <s> CREATE 0.0000
-1.3424 <s> HEY 0.0000
-1.3424 <s> OPEN 0.0000
-1.3424 <s> PLAY 0.0000
-1.3424 <s> SEARCH 0.0000
-1.3424 <s> SEND 0.0000
-1.0414 <s> SET 0.0000
-1.3424 <s> TELL 0.0000
-1.3424 <s> TRANSLATE 0.0000
-1.3424 <s> WEATHER 0.0000
-0.9031 A JOKE 0.0000
-0.9031 A MESSAGE 0.0000
-0.9031 A REMINDER 0.0000
-0.9031 A TIMER 0.0000
-0.3010 ALARM FOR 0.0000
-0.3010 AN ALARM 0.0000
-0.3010 CREATE A -0.2430
-0.3010 FOR </s> -0.3010
-0.3010 FORECAST </s> -0.3010
-0.3010 HEY VOCALIA 0.0000
-0.3010 JOKE </s> -0.3010
-0.3010 ME A -0.2430
-0.3010 MESSAGE TO 0.0000
-0.3010 MUSIC </s> -0.3010
-0.3010 OPEN </s> -0.3010
-0.3010 PLAY MUSIC 0.0000
-0.3010 REMINDER </s> -0.3010
-0.3010 SEARCH FOR 0.0000
-0.3010 SEND A -0.2430
-0.6021 SET A -0.2430
-0.6021 SET AN 0.0000
-0.3010 TELL ME 0.0000
-0.3010 TIMER FOR 0.0000
-0.3010 TO </s> -0.3010
-0.3010 TRANSLATE </s> -0.3010
-0.3010 VOCALIA </s> -0.3010
-0.3010 WEATHER FORECAST 0.0000

\3-grams:
-0.3010 <s> CREATE A
-0.3010 <s> HEY VOCALIA
-0.3010 <s> OPEN </s>
-0.3010 <s> PLAY MUSIC
-0.3010 <s> SEARCH FOR
-0.3010 <s> SEND A
-0.6021 <s> SET A
-0.6021 <s> SET AN
-0.3010 <s> TELL ME
-0.3010 <s> TRANSLATE </s>
-0.3010 <s> WEATHER FORECAST
-0.3010 A JOKE </s>
-0.3010 A MESSAGE TO
-0.3010 A REMINDER </s>
-0.3010 A TIMER FOR
-0.3010 ALARM FOR </s>
-0.3010 AN ALARM FOR
-0.3010 CREATE A REMINDER
-0.3010 HEY VOCALIA </s>
-0.3010 ME A JOKE
-0.3010 MESSAGE TO </s>
-0.3010 PLAY MUSIC </s>
-0.3010 SEARCH FOR </s>
-0.3010 SEND A MESSAGE
-0.3010 SET A TIMER
-0.3010 SET AN ALARM
-0.3010 TELL ME A
-0.3010 TIMER FOR </s>
-0.3010 WEATHER FORECAST </s>

\end\